{
  "timestamp": "2026-03-05T23:46:51",
  "generation": 31,
  "target_laps": 10,
  "best_lap_frames": 234,
  "winner_car": 2,
  "winner_score": 29052.017420968277,
  "stagnation_gens": 0,
  "neural_network": {
    "W1": [
      [
        -1.2458221407855152,
        -0.5190933233953599,
        -0.43027962020380306,
        1.8350763271650563,
        0.22922557020014833,
        0.06935163155541235,
        -0.01632453849746144,
        -0.1350830402232403,
        1.1410352988011534,
        1.5073535619971838,
        0.1789279509974925,
        0.5214595221446896,
        -1.2544612873662324,
        2.0908837635741664,
        0.6214861639928062,
        -0.21867177412483152
      ],
      [
        -0.21838969014557422,
        0.23977234867004665,
        0.10946651160111659,
        0.36870896112656215,
        -1.1700751697339653,
        0.2951994924548719,
        -0.2736552142461455,
        0.6974693621092152,
        -0.06006193713534508,
        -0.10050037247920621,
        -0.33545415868993234,
        -1.3602976688252089,
        -0.9423776450743188,
        0.5125223918036218,
        -0.17002103849129646,
        0.4590111124752168
      ],
      [
        0.09238139402705695,
        -0.8470182524186086,
        -0.35368794803870707,
        -0.3204998162267779,
        -0.19132408564587616,
        -0.037340679455349274,
        -0.7100974297726315,
        -0.33946185045850547,
        0.32381522691537556,
        -0.24323093458805495,
        -1.3606710849165555,
        -0.3675534378197582,
        0.9507625588094798,
        -0.33878174253213433,
        0.3773782847260509,
        1.0236176821007428
      ],
      [
        0.24772852544816826,
        0.02888396946075375,
        3.619327172524407,
        -0.993621732939719,
        -1.618108015966357,
        0.1396063684219079,
        -1.5054861904743397,
        -0.38337664416317463,
        -2.2496892515926628,
        -0.7139152620765987,
        0.05692182260279782,
        -0.3250741082420612,
        0.06423909249943156,
        0.7549646797425471,
        -0.32632910166549955,
        0.07125656088298193
      ],
      [
        0.14769007527295874,
        0.18021857718290796,
        -0.5891225222152555,
        1.1291376733875151,
        0.008912532634040002,
        0.3414523826869755,
        1.0504162925351321,
        0.20950163206095007,
        0.6445626947104304,
        -0.14383225474785424,
        0.5868640984540441,
        0.6004461800035821,
        -0.24795733400496378,
        -0.0768811484639588,
        0.276839195939094,
        -0.8896045970874493
      ],
      [
        -0.4789245779759309,
        1.2898509284037554,
        -0.6472530930800755,
        -0.5363691562604938,
        -0.31506658586295666,
        -0.7247570907736625,
        0.08063197738797628,
        -1.0257369114257484,
        -3.2764159978163785,
        -0.02540817126031711,
        0.8661016449822011,
        -0.2004717205037539,
        0.5551739018027957,
        1.4852051917761413,
        0.6213420275973911,
        -0.07989951357207828
      ],
      [
        -2.208854955915192,
        0.14191234553007348,
        0.0560900125819882,
        0.24784799074799413,
        0.6351086498732804,
        0.4552744835687107,
        0.45456005000382804,
        -0.45872102238342083,
        0.3937776552741974,
        1.0357646303893449,
        -0.5822567896886809,
        0.8406400543237921,
        -0.4892206926229449,
        -0.8684340980871716,
        0.36808755759117734,
        -0.9723671598611785
      ],
      [
        0.7761228543909087,
        -0.34273273680576555,
        0.0884474468274263,
        -0.36457504894902776,
        1.6567704171180346,
        0.17229387546629588,
        0.9477397020156269,
        0.6404505238304475,
        1.134864633838059,
        -0.9196485771514356,
        0.34809728105396714,
        0.5066456164644147,
        0.49781353580161714,
        0.5083631171576931,
        -0.724222095499319,
        0.7514483103537822
      ]
    ],
    "b1": [
      0.10848141554659896,
      -0.4969592592227762,
      -1.0569804318030633,
      1.1075421438396114,
      0.13827962985599088,
      0.811425337791457,
      -0.021489545118595608,
      0.8091706547006616,
      0.2384523441677688,
      -1.1931885311054686,
      0.7559893351932676,
      0.11476807350861973,
      1.1310746471216615,
      -0.19136018570108165,
      0.9695600074653313,
      0.04051141543670722
    ],
    "W2": [
      [
        0.10522113400399066,
        -1.37131804047316
      ],
      [
        0.7937680797866408,
        -0.09257728426585857
      ],
      [
        -0.06436968184497943,
        -0.08929810683443831
      ],
      [
        0.3606839812021966,
        -0.30946528276440644
      ],
      [
        0.06716984498534172,
        -0.5317718836646831
      ],
      [
        0.5824922702443958,
        0.8419704931590414
      ],
      [
        0.24944304756156968,
        -0.50670095649459
      ],
      [
        -0.10754051223763733,
        0.2646848352600434
      ],
      [
        -0.6356146121509654,
        -0.584155405721936
      ],
      [
        0.6805953689895075,
        -0.5079193359184666
      ],
      [
        0.7699157787474094,
        -0.42038442104571294
      ],
      [
        0.07942114763847549,
        -0.036310435547867476
      ],
      [
        -0.039315425120771255,
        -0.018179361936267596
      ],
      [
        -0.22393955017152384,
        -0.5077139772859485
      ],
      [
        0.24617840136111707,
        -0.6477630092207692
      ],
      [
        -0.5755201174462223,
        0.5238671820075471
      ]
    ],
    "b2": [
      0.1709250314914013,
      -0.2649973939419656
    ]
  },
  "config_snapshot": {
    "population": 80,
    "top_survivors": 10,
    "mutation_rate": 0.28,
    "mutation_mode": "normal"
  },
  "fitness_history": {
    "best": [
      1.7500000743661086,
      5.033000196050853,
      0.9550000347197053,
      0.9350000389851629,
      1.4300000544637446,
      1.2620000526309016,
      1.94800008740276,
      1.9520001011900627,
      2.121000111289322,
      2.193000091798603,
      1.6700000707525777,
      1.9860000919550653,
      2.1870000972412527,
      2.124000095576048,
      2.0710000972263516,
      2.232000084780157,
      7.398000300955028,
      2.4320000812411307,
      2.680000136001036,
      2.408000119635835,
      1734.3701138058436,
      2178.027328178223,
      2178.027328178223,
      2178.027328178223,
      2082.2462578686645,
      2043.2671726213819,
      1855.9258571730925,
      1897.9449613524478,
      1784.5556398415906,
      1852.1055511227219
    ],
    "avg": [
      -429.6083124839899,
      -379.6221874842036,
      -299.5577249820664,
      -429.5739624821889,
      -339.7832499910163,
      -329.56679998216396,
      -339.5887499826623,
      -299.50617497942295,
      -349.5433999813511,
      -249.54852498073478,
      -389.3588374723488,
      -299.29103747037703,
      -239.28257496967794,
      -299.09076246120736,
      -279.04087496076244,
      -208.85304995044484,
      -298.36973743037026,
      -258.25037492584204,
      -295.18529990067816,
      -268.31968742902563,
      -206.2515985111034,
      -230.49354580128178,
      -249.22963466831249,
      -158.9792144861554,
      -97.15274534692279,
      -118.77683442098271,
      -167.93597361928283,
      -270.39556441274044,
      -172.87831905812254,
      -87.97020684816631
    ]
  }
}